digraph Tree {
node [shape=box, style="filled, rounded", color="black", fontname=helvetica] ;
edge [fontname=helvetica] ;
0 [label="hora <= 10.5\ngini = 0.5\nsamples = 2070278\nvalue = [1034591, 1035687]\nclass = Entrada", fillcolor="#ffffff"] ;
1 [label="hora <= 9.5\ngini = 0.455\nsamples = 373964\nvalue = [130629, 243335]\nclass = Entrada", fillcolor="#a3d2f3"] ;
0 -> 1 [labeldistance=2.5, labelangle=45, headlabel="True"] ;
2 [label="hora <= 2.5\ngini = 0.357\nsamples = 101948\nvalue = [23717, 78231]\nclass = Entrada", fillcolor="#75bbed"] ;
1 -> 2 ;
3 [label="hora <= 0.5\ngini = 0.428\nsamples = 705\nvalue = [486, 219]\nclass = Salida", fillcolor="#f1ba92"] ;
2 -> 3 ;
4 [label="dia de la semana <= 0.5\ngini = 0.347\nsamples = 399\nvalue = [310, 89]\nclass = Salida", fillcolor="#eca572"] ;
3 -> 4 ;
5 [label="ocupacion <= 0.5\ngini = 0.48\nsamples = 10\nvalue = [4, 6]\nclass = Entrada", fillcolor="#bddef6"] ;
4 -> 5 ;
6 [label="gini = 0.0\nsamples = 4\nvalue = [0, 4]\nclass = Entrada", fillcolor="#399de5"] ;
5 -> 6 ;
7 [label="mes <= 5.0\ngini = 0.444\nsamples = 6\nvalue = [4, 2]\nclass = Salida", fillcolor="#f2c09c"] ;
5 -> 7 ;
8 [label="(...)", fillcolor="#C0C0C0"] ;
7 -> 8 ;
9 [label="(...)", fillcolor="#C0C0C0"] ;
7 -> 9 ;
10 [label="mes <= 11.5\ngini = 0.336\nsamples = 389\nvalue = [306, 83]\nclass = Salida", fillcolor="#eca36f"] ;
4 -> 10 ;
11 [label="dia de la semana <= 5.5\ngini = 0.355\nsamples = 342\nvalue = [263, 79]\nclass = Salida", fillcolor="#eda774"] ;
10 -> 11 ;
12 [label="(...)", fillcolor="#C0C0C0"] ;
11 -> 12 ;
87 [label="(...)", fillcolor="#C0C0C0"] ;
11 -> 87 ;
96 [label="dia de la semana <= 3.5\ngini = 0.156\nsamples = 47\nvalue = [43, 4]\nclass = Salida", fillcolor="#e78d4b"] ;
10 -> 96 ;
97 [label="(...)", fillcolor="#C0C0C0"] ;
96 -> 97 ;
104 [label="(...)", fillcolor="#C0C0C0"] ;
96 -> 104 ;
105 [label="mes <= 7.5\ngini = 0.489\nsamples = 306\nvalue = [176, 130]\nclass = Salida", fillcolor="#f8decb"] ;
3 -> 105 ;
106 [label="ocupacion <= 0.5\ngini = 0.5\nsamples = 192\nvalue = [94, 98]\nclass = Entrada", fillcolor="#f7fbfe"] ;
105 -> 106 ;
107 [label="dia de la semana <= 0.5\ngini = 0.493\nsamples = 127\nvalue = [56, 71]\nclass = Entrada", fillcolor="#d5eafa"] ;
106 -> 107 ;
108 [label="(...)", fillcolor="#C0C0C0"] ;
107 -> 108 ;
113 [label="(...)", fillcolor="#C0C0C0"] ;
107 -> 113 ;
182 [label="hora <= 1.5\ngini = 0.486\nsamples = 65\nvalue = [38, 27]\nclass = Salida", fillcolor="#f7dbc6"] ;
106 -> 182 ;
183 [label="(...)", fillcolor="#C0C0C0"] ;
182 -> 183 ;
222 [label="(...)", fillcolor="#C0C0C0"] ;
182 -> 222 ;
235 [label="dia de la semana <= 0.5\ngini = 0.404\nsamples = 114\nvalue = [82, 32]\nclass = Salida", fillcolor="#efb286"] ;
105 -> 235 ;
236 [label="gini = 0.0\nsamples = 3\nvalue = [0, 3]\nclass = Entrada", fillcolor="#399de5"] ;
235 -> 236 ;
237 [label="dia de la semana <= 5.5\ngini = 0.386\nsamples = 111\nvalue = [82, 29]\nclass = Salida", fillcolor="#eeae7f"] ;
235 -> 237 ;
238 [label="(...)", fillcolor="#C0C0C0"] ;
237 -> 238 ;
299 [label="(...)", fillcolor="#C0C0C0"] ;
237 -> 299 ;
304 [label="hora <= 6.5\ngini = 0.354\nsamples = 101243\nvalue = [23231, 78012]\nclass = Entrada", fillcolor="#74baed"] ;
2 -> 304 ;
305 [label="ocupacion <= 0.5\ngini = 0.488\nsamples = 532\nvalue = [224, 308]\nclass = Entrada", fillcolor="#c9e4f8"] ;
304 -> 305 ;
306 [label="hora <= 3.5\ngini = 0.411\nsamples = 211\nvalue = [61, 150]\nclass = Entrada", fillcolor="#8ac5f0"] ;
305 -> 306 ;
307 [label="mes <= 6.5\ngini = 0.49\nsamples = 42\nvalue = [18, 24]\nclass = Entrada", fillcolor="#cee6f8"] ;
306 -> 307 ;
308 [label="(...)", fillcolor="#C0C0C0"] ;
307 -> 308 ;
321 [label="(...)", fillcolor="#C0C0C0"] ;
307 -> 321 ;
340 [label="dia de la semana <= 0.5\ngini = 0.379\nsamples = 169\nvalue = [43, 126]\nclass = Entrada", fillcolor="#7dbeee"] ;
306 -> 340 ;
341 [label="(...)", fillcolor="#C0C0C0"] ;
340 -> 341 ;
346 [label="(...)", fillcolor="#C0C0C0"] ;
340 -> 346 ;
439 [label="dia de la semana <= 4.5\ngini = 0.5\nsamples = 321\nvalue = [163, 158]\nclass = Salida", fillcolor="#fefbf9"] ;
305 -> 439 ;
440 [label="hora <= 4.5\ngini = 0.5\nsamples = 285\nvalue = [139, 146]\nclass = Entrada", fillcolor="#f6fafe"] ;
439 -> 440 ;
441 [label="(...)", fillcolor="#C0C0C0"] ;
440 -> 441 ;
464 [label="(...)", fillcolor="#C0C0C0"] ;
440 -> 464 ;
559 [label="hora <= 5.5\ngini = 0.444\nsamples = 36\nvalue = [24, 12]\nclass = Salida", fillcolor="#f2c09c"] ;
439 -> 559 ;
560 [label="(...)", fillcolor="#C0C0C0"] ;
559 -> 560 ;
573 [label="(...)", fillcolor="#C0C0C0"] ;
559 -> 573 ;
582 [label="ocupacion <= 0.5\ngini = 0.353\nsamples = 100711\nvalue = [23007, 77704]\nclass = Entrada", fillcolor="#74baed"] ;
304 -> 582 ;
583 [label="hora <= 7.5\ngini = 0.305\nsamples = 7862\nvalue = [1473, 6389]\nclass = Entrada", fillcolor="#67b4eb"] ;
582 -> 583 ;
584 [label="dia de la semana <= 2.5\ngini = 0.267\nsamples = 686\nvalue = [109, 577]\nclass = Entrada", fillcolor="#5eb0ea"] ;
583 -> 584 ;
585 [label="(...)", fillcolor="#C0C0C0"] ;
584 -> 585 ;
650 [label="(...)", fillcolor="#C0C0C0"] ;
584 -> 650 ;
697 [label="dia de la semana <= 3.5\ngini = 0.308\nsamples = 7176\nvalue = [1364, 5812]\nclass = Entrada", fillcolor="#67b4eb"] ;
583 -> 697 ;
698 [label="(...)", fillcolor="#C0C0C0"] ;
697 -> 698 ;
847 [label="(...)", fillcolor="#C0C0C0"] ;
697 -> 847 ;
952 [label="hora <= 8.5\ngini = 0.356\nsamples = 92849\nvalue = [21534, 71315]\nclass = Entrada", fillcolor="#75bbed"] ;
582 -> 952 ;
953 [label="dia de la semana <= 5.5\ngini = 0.384\nsamples = 13982\nvalue = [3628, 10354]\nclass = Entrada", fillcolor="#7ebfee"] ;
952 -> 953 ;
954 [label="(...)", fillcolor="#C0C0C0"] ;
953 -> 954 ;
1133 [label="(...)", fillcolor="#C0C0C0"] ;
953 -> 1133 ;
1140 [label="dia de la semana <= 3.5\ngini = 0.351\nsamples = 78867\nvalue = [17906, 60961]\nclass = Entrada", fillcolor="#73baed"] ;
952 -> 1140 ;
1141 [label="(...)", fillcolor="#C0C0C0"] ;
1140 -> 1141 ;
1320 [label="(...)", fillcolor="#C0C0C0"] ;
1140 -> 1320 ;
1419 [label="ocupacion <= 7.5\ngini = 0.477\nsamples = 272016\nvalue = [106912, 165104]\nclass = Entrada", fillcolor="#b9dcf6"] ;
1 -> 1419 ;
1420 [label="dia de la semana <= 4.5\ngini = 0.468\nsamples = 155157\nvalue = [57861, 97296]\nclass = Entrada", fillcolor="#afd7f4"] ;
1419 -> 1420 ;
1421 [label="ocupacion <= 5.5\ngini = 0.47\nsamples = 137176\nvalue = [51851, 85325]\nclass = Entrada", fillcolor="#b1d9f5"] ;
1420 -> 1421 ;
1422 [label="dia de la semana <= 3.5\ngini = 0.467\nsamples = 89674\nvalue = [33340, 56334]\nclass = Entrada", fillcolor="#aed7f4"] ;
1421 -> 1422 ;
1423 [label="mes <= 8.5\ngini = 0.468\nsamples = 71524\nvalue = [26752, 44772]\nclass = Entrada", fillcolor="#afd8f5"] ;
1422 -> 1423 ;
1424 [label="(...)", fillcolor="#C0C0C0"] ;
1423 -> 1424 ;
1601 [label="(...)", fillcolor="#C0C0C0"] ;
1423 -> 1601 ;
1734 [label="ocupacion <= 3.5\ngini = 0.462\nsamples = 18150\nvalue = [6588, 11562]\nclass = Entrada", fillcolor="#aad5f4"] ;
1422 -> 1734 ;
1735 [label="(...)", fillcolor="#C0C0C0"] ;
1734 -> 1735 ;
1816 [label="(...)", fillcolor="#C0C0C0"] ;
1734 -> 1816 ;
1861 [label="ocupacion <= 6.5\ngini = 0.476\nsamples = 47502\nvalue = [18511, 28991]\nclass = Entrada", fillcolor="#b7dcf6"] ;
1421 -> 1861 ;
1862 [label="mes <= 9.5\ngini = 0.473\nsamples = 24116\nvalue = [9239, 14877]\nclass = Entrada", fillcolor="#b4daf5"] ;
1861 -> 1862 ;
1863 [label="(...)", fillcolor="#C0C0C0"] ;
1862 -> 1863 ;
1952 [label="(...)", fillcolor="#C0C0C0"] ;
1862 -> 1952 ;
1981 [label="mes <= 6.5\ngini = 0.479\nsamples = 23386\nvalue = [9272, 14114]\nclass = Entrada", fillcolor="#bbddf6"] ;
1861 -> 1981 ;
1982 [label="(...)", fillcolor="#C0C0C0"] ;
1981 -> 1982 ;
2041 [label="(...)", fillcolor="#C0C0C0"] ;
1981 -> 2041 ;
2096 [label="dia de la semana <= 5.5\ngini = 0.445\nsamples = 17981\nvalue = [6010, 11971]\nclass = Entrada", fillcolor="#9ccef2"] ;
1420 -> 2096 ;
2097 [label="ocupacion <= 4.5\ngini = 0.444\nsamples = 17879\nvalue = [5958, 11921]\nclass = Entrada", fillcolor="#9ccef2"] ;
2096 -> 2097 ;
2098 [label="mes <= 5.5\ngini = 0.438\nsamples = 12255\nvalue = [3975, 8280]\nclass = Entrada", fillcolor="#98ccf1"] ;
2097 -> 2098 ;
2099 [label="(...)", fillcolor="#C0C0C0"] ;
2098 -> 2099 ;
2144 [label="(...)", fillcolor="#C0C0C0"] ;
2098 -> 2144 ;
2213 [label="mes <= 8.5\ngini = 0.457\nsamples = 5624\nvalue = [1983, 3641]\nclass = Entrada", fillcolor="#a5d2f3"] ;
2097 -> 2213 ;
2214 [label="(...)", fillcolor="#C0C0C0"] ;
2213 -> 2214 ;
2261 [label="(...)", fillcolor="#C0C0C0"] ;
2213 -> 2261 ;
2284 [label="ocupacion <= 0.5\ngini = 0.5\nsamples = 102\nvalue = [52, 50]\nclass = Salida", fillcolor="#fefaf7"] ;
2096 -> 2284 ;
2285 [label="mes <= 7.5\ngini = 0.36\nsamples = 51\nvalue = [12, 39]\nclass = Entrada", fillcolor="#76bbed"] ;
2284 -> 2285 ;
2286 [label="(...)", fillcolor="#C0C0C0"] ;
2285 -> 2286 ;
2291 [label="(...)", fillcolor="#C0C0C0"] ;
2285 -> 2291 ;
2300 [label="mes <= 1.5\ngini = 0.338\nsamples = 51\nvalue = [40, 11]\nclass = Salida", fillcolor="#eca46f"] ;
2284 -> 2300 ;
2301 [label="(...)", fillcolor="#C0C0C0"] ;
2300 -> 2301 ;
2302 [label="(...)", fillcolor="#C0C0C0"] ;
2300 -> 2302 ;
2319 [label="ocupacion <= 10.5\ngini = 0.487\nsamples = 116859\nvalue = [49051, 67808]\nclass = Entrada", fillcolor="#c8e4f8"] ;
1419 -> 2319 ;
2320 [label="dia de la semana <= 4.5\ngini = 0.482\nsamples = 60551\nvalue = [24564, 35987]\nclass = Entrada", fillcolor="#c0e0f7"] ;
2319 -> 2320 ;
2321 [label="mes <= 1.5\ngini = 0.483\nsamples = 57937\nvalue = [23614, 34323]\nclass = Entrada", fillcolor="#c1e0f7"] ;
2320 -> 2321 ;
2322 [label="dia de la semana <= 3.5\ngini = 0.476\nsamples = 4600\nvalue = [1795, 2805]\nclass = Entrada", fillcolor="#b8dcf6"] ;
2321 -> 2322 ;
2323 [label="(...)", fillcolor="#C0C0C0"] ;
2322 -> 2323 ;
2346 [label="(...)", fillcolor="#C0C0C0"] ;
2322 -> 2346 ;
2351 [label="mes <= 10.5\ngini = 0.483\nsamples = 53337\nvalue = [21819, 31518]\nclass = Entrada", fillcolor="#c2e1f7"] ;
2321 -> 2351 ;
2352 [label="(...)", fillcolor="#C0C0C0"] ;
2351 -> 2352 ;
2503 [label="(...)", fillcolor="#C0C0C0"] ;
2351 -> 2503 ;
2562 [label="mes <= 6.5\ngini = 0.463\nsamples = 2614\nvalue = [950, 1664]\nclass = Entrada", fillcolor="#aad5f4"] ;
2320 -> 2562 ;
2563 [label="mes <= 3.5\ngini = 0.457\nsamples = 1259\nvalue = [444, 815]\nclass = Entrada", fillcolor="#a5d2f3"] ;
2562 -> 2563 ;
2564 [label="(...)", fillcolor="#C0C0C0"] ;
2563 -> 2564 ;
2581 [label="(...)", fillcolor="#C0C0C0"] ;
2563 -> 2581 ;
2598 [label="ocupacion <= 9.5\ngini = 0.468\nsamples = 1355\nvalue = [506, 849]\nclass = Entrada", fillcolor="#afd7f4"] ;
2562 -> 2598 ;
2599 [label="(...)", fillcolor="#C0C0C0"] ;
2598 -> 2599 ;
2622 [label="(...)", fillcolor="#C0C0C0"] ;
2598 -> 2622 ;
2633 [label="ocupacion <= 14.5\ngini = 0.492\nsamples = 56308\nvalue = [24487, 31821]\nclass = Entrada", fillcolor="#d1e8f9"] ;
2319 -> 2633 ;
2634 [label="dia de la semana <= 4.5\ngini = 0.49\nsamples = 40391\nvalue = [17277, 23114]\nclass = Entrada", fillcolor="#cde6f8"] ;
2633 -> 2634 ;
2635 [label="mes <= 1.5\ngini = 0.49\nsamples = 39194\nvalue = [16838, 22356]\nclass = Entrada", fillcolor="#cee7f9"] ;
2634 -> 2635 ;
2636 [label="(...)", fillcolor="#C0C0C0"] ;
2635 -> 2636 ;
2675 [label="(...)", fillcolor="#C0C0C0"] ;
2635 -> 2675 ;
2844 [label="mes <= 1.5\ngini = 0.464\nsamples = 1197\nvalue = [439, 758]\nclass = Entrada", fillcolor="#acd6f4"] ;
2634 -> 2844 ;
2845 [label="(...)", fillcolor="#C0C0C0"] ;
2844 -> 2845 ;
2852 [label="(...)", fillcolor="#C0C0C0"] ;
2844 -> 2852 ;
2923 [label="dia de la semana <= 4.5\ngini = 0.496\nsamples = 15917\nvalue = [7210, 8707]\nclass = Entrada", fillcolor="#ddeefb"] ;
2633 -> 2923 ;
2924 [label="mes <= 1.5\ngini = 0.496\nsamples = 15470\nvalue = [7030, 8440]\nclass = Entrada", fillcolor="#deeffb"] ;
2923 -> 2924 ;
2925 [label="(...)", fillcolor="#C0C0C0"] ;
2924 -> 2925 ;
3000 [label="(...)", fillcolor="#C0C0C0"] ;
2924 -> 3000 ;
3153 [label="mes <= 6.5\ngini = 0.481\nsamples = 447\nvalue = [180, 267]\nclass = Entrada", fillcolor="#bedff7"] ;
2923 -> 3153 ;
3154 [label="(...)", fillcolor="#C0C0C0"] ;
3153 -> 3154 ;
3201 [label="(...)", fillcolor="#C0C0C0"] ;
3153 -> 3201 ;
3276 [label="hora <= 19.5\ngini = 0.498\nsamples = 1696314\nvalue = [903962, 792352]\nclass = Salida", fillcolor="#fcefe7"] ;
0 -> 3276 [labeldistance=2.5, labelangle=-45, headlabel="False"] ;
3277 [label="hora <= 18.5\ngini = 0.499\nsamples = 1642259\nvalue = [853981, 788278]\nclass = Salida", fillcolor="#fdf5f0"] ;
3276 -> 3277 ;
3278 [label="hora <= 15.5\ngini = 0.5\nsamples = 1508774\nvalue = [774341, 734433]\nclass = Salida", fillcolor="#fef9f5"] ;
3277 -> 3278 ;
3279 [label="hora <= 11.5\ngini = 0.497\nsamples = 1021097\nvalue = [547163, 473934]\nclass = Salida", fillcolor="#fceee5"] ;
3278 -> 3279 ;
3280 [label="dia de la semana <= 4.5\ngini = 0.5\nsamples = 299343\nvalue = [153023, 146320]\nclass = Salida", fillcolor="#fef9f6"] ;
3279 -> 3280 ;
3281 [label="ocupacion <= 10.5\ngini = 0.499\nsamples = 269805\nvalue = [139508, 130297]\nclass = Salida", fillcolor="#fdf7f2"] ;
3280 -> 3281 ;
3282 [label="(...)", fillcolor="#C0C0C0"] ;
3281 -> 3282 ;
3515 [label="(...)", fillcolor="#C0C0C0"] ;
3281 -> 3515 ;
3740 [label="mes <= 9.5\ngini = 0.496\nsamples = 29538\nvalue = [13515, 16023]\nclass = Entrada", fillcolor="#e0f0fb"] ;
3280 -> 3740 ;
3741 [label="(...)", fillcolor="#C0C0C0"] ;
3740 -> 3741 ;
3890 [label="(...)", fillcolor="#C0C0C0"] ;
3740 -> 3890 ;
3971 [label="dia de la semana <= 4.5\ngini = 0.496\nsamples = 721754\nvalue = [394140, 327614]\nclass = Salida", fillcolor="#fbeade"] ;
3279 -> 3971 ;
3972 [label="hora <= 12.5\ngini = 0.497\nsamples = 681960\nvalue = [368152, 313808]\nclass = Salida", fillcolor="#fbece2"] ;
3971 -> 3972 ;
3973 [label="(...)", fillcolor="#C0C0C0"] ;
3972 -> 3973 ;
4194 [label="(...)", fillcolor="#C0C0C0"] ;
3972 -> 4194 ;
4441 [label="hora <= 12.5\ngini = 0.453\nsamples = 39794\nvalue = [25988, 13806]\nclass = Salida", fillcolor="#f3c4a2"] ;
3971 -> 4441 ;
4442 [label="(...)", fillcolor="#C0C0C0"] ;
4441 -> 4442 ;
4593 [label="(...)", fillcolor="#C0C0C0"] ;
4441 -> 4593 ;
4780 [label="hora <= 16.5\ngini = 0.498\nsamples = 487677\nvalue = [227178, 260499]\nclass = Entrada", fillcolor="#e6f2fc"] ;
3278 -> 4780 ;
4781 [label="dia de la semana <= 4.5\ngini = 0.495\nsamples = 132434\nvalue = [59591, 72843]\nclass = Entrada", fillcolor="#dbedfa"] ;
4780 -> 4781 ;
4782 [label="ocupacion <= 0.5\ngini = 0.495\nsamples = 131207\nvalue = [58910, 72297]\nclass = Entrada", fillcolor="#daedfa"] ;
4781 -> 4782 ;
4783 [label="(...)", fillcolor="#C0C0C0"] ;
4782 -> 4783 ;
4850 [label="(...)", fillcolor="#C0C0C0"] ;
4782 -> 4850 ;
5019 [label="ocupacion <= 10.5\ngini = 0.494\nsamples = 1227\nvalue = [681, 546]\nclass = Salida", fillcolor="#fae6d8"] ;
4781 -> 5019 ;
5020 [label="(...)", fillcolor="#C0C0C0"] ;
5019 -> 5020 ;
5141 [label="(...)", fillcolor="#C0C0C0"] ;
5019 -> 5141 ;
5164 [label="mes <= 2.5\ngini = 0.498\nsamples = 355243\nvalue = [167587, 187656]\nclass = Entrada", fillcolor="#eaf5fc"] ;
4780 -> 5164 ;
5165 [label="ocupacion <= 3.5\ngini = 0.495\nsamples = 47886\nvalue = [21480, 26406]\nclass = Entrada", fillcolor="#daedfa"] ;
5164 -> 5165 ;
5166 [label="(...)", fillcolor="#C0C0C0"] ;
5165 -> 5166 ;
5311 [label="(...)", fillcolor="#C0C0C0"] ;
5165 -> 5311 ;
5508 [label="mes <= 9.5\ngini = 0.499\nsamples = 307357\nvalue = [146107, 161250]\nclass = Entrada", fillcolor="#ecf6fd"] ;
5164 -> 5508 ;
5509 [label="(...)", fillcolor="#C0C0C0"] ;
5508 -> 5509 ;
5730 [label="(...)", fillcolor="#C0C0C0"] ;
5508 -> 5730 ;
5977 [label="mes <= 2.5\ngini = 0.481\nsamples = 133485\nvalue = [79640, 53845]\nclass = Salida", fillcolor="#f7d6bf"] ;
3277 -> 5977 ;
5978 [label="ocupacion <= 8.5\ngini = 0.496\nsamples = 24395\nvalue = [13234, 11161]\nclass = Salida", fillcolor="#fbebe0"] ;
5977 -> 5978 ;
5979 [label="mes <= 1.5\ngini = 0.497\nsamples = 15466\nvalue = [8316, 7150]\nclass = Salida", fillcolor="#fbede3"] ;
5978 -> 5979 ;
5980 [label="dia de la semana <= 4.5\ngini = 0.498\nsamples = 7883\nvalue = [4165, 3718]\nclass = Salida", fillcolor="#fcf1ea"] ;
5979 -> 5980 ;
5981 [label="(...)", fillcolor="#C0C0C0"] ;
5980 -> 5981 ;
6062 [label="(...)", fillcolor="#C0C0C0"] ;
5980 -> 6062 ;
6081 [label="dia de la semana <= 3.5\ngini = 0.496\nsamples = 7583\nvalue = [4151, 3432]\nclass = Salida", fillcolor="#fae9dd"] ;
5979 -> 6081 ;
6082 [label="(...)", fillcolor="#C0C0C0"] ;
6081 -> 6082 ;
6135 [label="(...)", fillcolor="#C0C0C0"] ;
6081 -> 6135 ;
6168 [label="ocupacion <= 38.5\ngini = 0.495\nsamples = 8929\nvalue = [4918, 4011]\nclass = Salida", fillcolor="#fae8da"] ;
5978 -> 6168 ;
6169 [label="ocupacion <= 33.5\ngini = 0.495\nsamples = 8926\nvalue = [4915, 4011]\nclass = Salida", fillcolor="#fae8db"] ;
6168 -> 6169 ;
6170 [label="(...)", fillcolor="#C0C0C0"] ;
6169 -> 6170 ;
6307 [label="(...)", fillcolor="#C0C0C0"] ;
6169 -> 6307 ;
6308 [label="gini = 0.0\nsamples = 3\nvalue = [3, 0]\nclass = Salida", fillcolor="#e58139"] ;
6168 -> 6308 ;
6309 [label="mes <= 10.5\ngini = 0.476\nsamples = 109090\nvalue = [66406, 42684]\nclass = Salida", fillcolor="#f6d2b8"] ;
5977 -> 6309 ;
6310 [label="ocupacion <= 3.5\ngini = 0.47\nsamples = 84806\nvalue = [52711, 32095]\nclass = Salida", fillcolor="#f5ceb2"] ;
6309 -> 6310 ;
6311 [label="dia de la semana <= 4.5\ngini = 0.463\nsamples = 23594\nvalue = [15005, 8589]\nclass = Salida", fillcolor="#f4c9aa"] ;
6310 -> 6311 ;
6312 [label="(...)", fillcolor="#C0C0C0"] ;
6311 -> 6312 ;
6467 [label="(...)", fillcolor="#C0C0C0"] ;
6311 -> 6467 ;
6544 [label="mes <= 9.5\ngini = 0.473\nsamples = 61212\nvalue = [37706, 23506]\nclass = Salida", fillcolor="#f5d0b4"] ;
6310 -> 6544 ;
6545 [label="(...)", fillcolor="#C0C0C0"] ;
6544 -> 6545 ;
6728 [label="(...)", fillcolor="#C0C0C0"] ;
6544 -> 6728 ;
6837 [label="mes <= 11.5\ngini = 0.492\nsamples = 24284\nvalue = [13695, 10589]\nclass = Salida", fillcolor="#f9e2d2"] ;
6309 -> 6837 ;
6838 [label="dia de la semana <= 3.5\ngini = 0.49\nsamples = 12094\nvalue = [6917, 5177]\nclass = Salida", fillcolor="#f8dfcd"] ;
6837 -> 6838 ;
6839 [label="(...)", fillcolor="#C0C0C0"] ;
6838 -> 6839 ;
6964 [label="(...)", fillcolor="#C0C0C0"] ;
6838 -> 6964 ;
7043 [label="ocupacion <= 1.5\ngini = 0.494\nsamples = 12190\nvalue = [6778, 5412]\nclass = Salida", fillcolor="#fae6d7"] ;
6837 -> 7043 ;
7044 [label="(...)", fillcolor="#C0C0C0"] ;
7043 -> 7044 ;
7071 [label="(...)", fillcolor="#C0C0C0"] ;
7043 -> 7071 ;
7150 [label="dia de la semana <= 4.5\ngini = 0.139\nsamples = 54055\nvalue = [49981, 4074]\nclass = Salida", fillcolor="#e78b49"] ;
3276 -> 7150 ;
7151 [label="mes <= 1.5\ngini = 0.129\nsamples = 52779\nvalue = [49108, 3671]\nclass = Salida", fillcolor="#e78a48"] ;
7150 -> 7151 ;
7152 [label="hora <= 20.5\ngini = 0.19\nsamples = 5534\nvalue = [4946, 588]\nclass = Salida", fillcolor="#e89051"] ;
7151 -> 7152 ;
7153 [label="ocupacion <= 3.5\ngini = 0.201\nsamples = 4432\nvalue = [3931, 501]\nclass = Salida", fillcolor="#e89152"] ;
7152 -> 7153 ;
7154 [label="ocupacion <= 2.5\ngini = 0.215\nsamples = 2087\nvalue = [1832, 255]\nclass = Salida", fillcolor="#e99355"] ;
7153 -> 7154 ;
7155 [label="(...)", fillcolor="#C0C0C0"] ;
7154 -> 7155 ;
7184 [label="(...)", fillcolor="#C0C0C0"] ;
7154 -> 7184 ;
7193 [label="dia de la semana <= 0.5\ngini = 0.188\nsamples = 2345\nvalue = [2099, 246]\nclass = Salida", fillcolor="#e89050"] ;
7153 -> 7193 ;
7194 [label="(...)", fillcolor="#C0C0C0"] ;
7193 -> 7194 ;
7227 [label="(...)", fillcolor="#C0C0C0"] ;
7193 -> 7227 ;
7270 [label="hora <= 22.5\ngini = 0.145\nsamples = 1102\nvalue = [1015, 87]\nclass = Salida", fillcolor="#e78c4a"] ;
7152 -> 7270 ;
7271 [label="ocupacion <= 2.5\ngini = 0.134\nsamples = 1051\nvalue = [975, 76]\nclass = Salida", fillcolor="#e78b48"] ;
7270 -> 7271 ;
7272 [label="(...)", fillcolor="#C0C0C0"] ;
7271 -> 7272 ;
7327 [label="(...)", fillcolor="#C0C0C0"] ;
7271 -> 7327 ;
7380 [label="ocupacion <= 2.5\ngini = 0.338\nsamples = 51\nvalue = [40, 11]\nclass = Salida", fillcolor="#eca46f"] ;
7270 -> 7380 ;
7381 [label="(...)", fillcolor="#C0C0C0"] ;
7380 -> 7381 ;
7398 [label="(...)", fillcolor="#C0C0C0"] ;
7380 -> 7398 ;
7407 [label="mes <= 11.5\ngini = 0.122\nsamples = 47245\nvalue = [44162, 3083]\nclass = Salida", fillcolor="#e78a47"] ;
7151 -> 7407 ;
7408 [label="hora <= 21.5\ngini = 0.118\nsamples = 41292\nvalue = [38694, 2598]\nclass = Salida", fillcolor="#e78946"] ;
7407 -> 7408 ;
7409 [label="mes <= 2.5\ngini = 0.115\nsamples = 39294\nvalue = [36877, 2417]\nclass = Salida", fillcolor="#e78946"] ;
7408 -> 7409 ;
7410 [label="(...)", fillcolor="#C0C0C0"] ;
7409 -> 7410 ;
7565 [label="(...)", fillcolor="#C0C0C0"] ;
7409 -> 7565 ;
7730 [label="mes <= 7.5\ngini = 0.165\nsamples = 1998\nvalue = [1817, 181]\nclass = Salida", fillcolor="#e88e4d"] ;
7408 -> 7730 ;
7731 [label="(...)", fillcolor="#C0C0C0"] ;
7730 -> 7731 ;
7776 [label="(...)", fillcolor="#C0C0C0"] ;
7730 -> 7776 ;
7861 [label="ocupacion <= 45.5\ngini = 0.15\nsamples = 5953\nvalue = [5468, 485]\nclass = Salida", fillcolor="#e78c4b"] ;
7407 -> 7861 ;
7862 [label="hora <= 20.5\ngini = 0.149\nsamples = 5952\nvalue = [5468, 484]\nclass = Salida", fillcolor="#e78c4b"] ;
7861 -> 7862 ;
7863 [label="(...)", fillcolor="#C0C0C0"] ;
7862 -> 7863 ;
7966 [label="(...)", fillcolor="#C0C0C0"] ;
7862 -> 7966 ;
8031 [label="gini = 0.0\nsamples = 1\nvalue = [0, 1]\nclass = Entrada", fillcolor="#399de5"] ;
7861 -> 8031 ;
8032 [label="ocupacion <= 0.5\ngini = 0.432\nsamples = 1276\nvalue = [873, 403]\nclass = Salida", fillcolor="#f1bb94"] ;
7150 -> 8032 ;
8033 [label="dia de la semana <= 5.5\ngini = 0.491\nsamples = 524\nvalue = [298, 226]\nclass = Salida", fillcolor="#f9e1cf"] ;
8032 -> 8033 ;
8034 [label="hora <= 21.5\ngini = 0.44\nsamples = 382\nvalue = [257, 125]\nclass = Salida", fillcolor="#f2be99"] ;
8033 -> 8034 ;
8035 [label="mes <= 5.5\ngini = 0.416\nsamples = 335\nvalue = [236, 99]\nclass = Salida", fillcolor="#f0b68c"] ;
8034 -> 8035 ;
8036 [label="(...)", fillcolor="#C0C0C0"] ;
8035 -> 8036 ;
8055 [label="(...)", fillcolor="#C0C0C0"] ;
8035 -> 8055 ;
8082 [label="hora <= 22.5\ngini = 0.494\nsamples = 47\nvalue = [21, 26]\nclass = Entrada", fillcolor="#d9ecfa"] ;
8034 -> 8082 ;
8083 [label="(...)", fillcolor="#C0C0C0"] ;
8082 -> 8083 ;
8102 [label="(...)", fillcolor="#C0C0C0"] ;
8082 -> 8102 ;
8117 [label="hora <= 20.5\ngini = 0.411\nsamples = 142\nvalue = [41, 101]\nclass = Entrada", fillcolor="#89c5f0"] ;
8033 -> 8117 ;
8118 [label="mes <= 6.5\ngini = 0.477\nsamples = 79\nvalue = [31, 48]\nclass = Entrada", fillcolor="#b9dcf6"] ;
8117 -> 8118 ;
8119 [label="(...)", fillcolor="#C0C0C0"] ;
8118 -> 8119 ;
8130 [label="(...)", fillcolor="#C0C0C0"] ;
8118 -> 8130 ;
8141 [label="mes <= 8.5\ngini = 0.267\nsamples = 63\nvalue = [10, 53]\nclass = Entrada", fillcolor="#5eafea"] ;
8117 -> 8141 ;
8142 [label="(...)", fillcolor="#C0C0C0"] ;
8141 -> 8142 ;
8153 [label="(...)", fillcolor="#C0C0C0"] ;
8141 -> 8153 ;
8162 [label="mes <= 5.5\ngini = 0.36\nsamples = 752\nvalue = [575, 177]\nclass = Salida", fillcolor="#eda876"] ;
8032 -> 8162 ;
8163 [label="mes <= 3.5\ngini = 0.385\nsamples = 330\nvalue = [244, 86]\nclass = Salida", fillcolor="#eead7f"] ;
8162 -> 8163 ;
8164 [label="ocupacion <= 1.5\ngini = 0.361\nsamples = 241\nvalue = [184, 57]\nclass = Salida", fillcolor="#eda876"] ;
8163 -> 8164 ;
8165 [label="(...)", fillcolor="#C0C0C0"] ;
8164 -> 8165 ;
8198 [label="(...)", fillcolor="#C0C0C0"] ;
8164 -> 8198 ;
8261 [label="ocupacion <= 1.5\ngini = 0.439\nsamples = 89\nvalue = [60, 29]\nclass = Salida", fillcolor="#f2be99"] ;
8163 -> 8261 ;
8262 [label="(...)", fillcolor="#C0C0C0"] ;
8261 -> 8262 ;
8283 [label="(...)", fillcolor="#C0C0C0"] ;
8261 -> 8283 ;
8304 [label="hora <= 22.5\ngini = 0.338\nsamples = 422\nvalue = [331, 91]\nclass = Salida", fillcolor="#eca46f"] ;
8162 -> 8304 ;
8305 [label="ocupacion <= 10.5\ngini = 0.332\nsamples = 409\nvalue = [323, 86]\nclass = Salida", fillcolor="#eca36e"] ;
8304 -> 8305 ;
8306 [label="(...)", fillcolor="#C0C0C0"] ;
8305 -> 8306 ;
8385 [label="(...)", fillcolor="#C0C0C0"] ;
8305 -> 8385 ;
8388 [label="mes <= 8.5\ngini = 0.473\nsamples = 13\nvalue = [8, 5]\nclass = Salida", fillcolor="#f5d0b5"] ;
8304 -> 8388 ;
8389 [label="(...)", fillcolor="#C0C0C0"] ;
8388 -> 8389 ;
8390 [label="(...)", fillcolor="#C0C0C0"] ;
8388 -> 8390 ;
}